0.46231498121944326 -0.6590647199873944 -0.23567471644556157 0.3029563183847336 0.544839310797722 0.14945776036428615 0.2265335379213491 -0.3963192579583588 0.09839100241223434 0.655935767782924 -0.4683220530548364 0.1917591298123713 0.614164580329168 -0.48236797116480407 -0.39977705001001473 -0.2491674251014658 -0.7935465639328226 -0.5246664691614846 -0.46768682844297604 -0.5856055027424709 -0.40406382833398696 -0.8370751097908001 -0.515296340584674 -0.6120289058173447 -1.0585421448721777 -0.8777073858080032 -1.010940942766382 1.5390796234346966 0.2956610434237144 -0.4698011352310782 -0.6006940239714826 -1.0071595757942535 -0.622519973755126 -0.34621196520319314 0.03951047326781557 0.26062153844709995 -0.07904139944089146 0.5152142444223046 -0.4707013522878255 -0.48386158068612267 -0.669069457656556 0.18209341535162724 0.22717740132421818 0.6186389260703304 0.27292123210368807 -0.1408486476063917 0.03411733332592169 -0.35668559764400104 0.07650015044024255 0.9858451451957565 0.19382566606072896 0.23492385981969688 0.8041027265239659 0.2582943748248114 0.12483084906362243 0.4475210823627336 0.1963720135902022 -0.15388002346295418 -0.25665185652036254 0.6919719101637116 0.04528645702473655 0.19213615354997576 0.3426567835922427 -0.4237922864648244 
0.31037666678668974 0.3267240453913855 0.6983635116587779 -0.03368258407010729 -0.6136692718664037 0.02954390863663407 0.4457349740346702 -0.13322904739679087 -0.04096173920647999 -0.9344754422950006 1.5944873729020475 -0.933375131005464 -0.9343220303276945 0.708714105565464 0.5388308845450602 -0.35524875449000687 0.7562772600325903 0.7022655312062795 0.813483673604827 -0.34128352142087803 0.12856216045488286 1.1563427476578791 1.4068247122502149 0.875263878937588 1.7742644303949902 1.2368760622880968 1.2990393031018301 -2.1714591259618343 -0.3133577179468649 -0.14580930002015216 1.2846905957731394 0.6437178117841327 1.2987143571027076 0.9626699219021665 0.14550718155155137 -0.17254386676476258 -0.6571763376259594 0.4133632216788609 -0.1550458764984183 0.7452894018135937 0.24228340932249165 -1.115496087323903 0.04780749330914999 -1.3692838438372 -0.10740365363492377 -0.49248398030031393 -0.3119251129340711 0.5605205349167587 0.02357388285570618 -1.4882255923734813 -0.4753573210562074 -0.6796083461658555 -1.172789593855109 0.05083852220912897 -0.0490231254585328 0.3174796077417645 -0.4470049436056528 -0.3724891591973939 -0.9412575964617776 -0.9535324250260753 -0.5726176136925757 -0.24207867142866515 -0.34179686298234385 -0.09986506040180629 
0.30779220994985396 0.5555859105503449 0.3827149756234471 -0.24654811406556817 -0.2876356826322015 -0.03297302432783336 0.33153967254243505 0.26180857481659947 0.29933327146859184 0.38716333252979207 0.7162523971772455 -0.22605340663449175 -0.566606102426482 0.35329203381565194 0.2119909136787418 -0.20849388600149893 0.3604903654125625 0.18719520559243774 0.09628813844047805 0.6913668063371835 0.2887186855903774 0.8370543750177087 0.31644235231194007 0.3375544983749413 -0.09434050532937009 0.37330995118215676 0.611379576808339 0.2560969161673259 0.030619271940067423 0.3130940442712075 0.28451342469348645 0.9473671186924711 0.09278284819786663 -0.34169956572643706 0.223657142168601 0.13527903269064945 -0.320206200474748 0.12728771219050006 0.05411193074435035 0.515952309811847 0.07817101293891866 -0.24030981698048914 0.4039705022456748 -0.19733859637942605 0.46003929023562484 0.1755801489147495 -0.14571957648110836 -0.044314359440578474 0.04882623946692012 -0.4542464772879626 0.6853907051669033 -0.3553932933862781 -0.4364526935937873 -0.32384975049029163 -0.00982980585606851 -0.10721988096527249 -0.5250123283621214 -0.44072444365073166 0.42561090926252776 0.005549013060278605 -0.12152920336710481 -0.0872137382012099 0.3173433954357295 0.32626513503816174 
0.3924491571071329 -0.5300716287393077 0.4920704548745026 0.46485360099933726 -0.5529344584796927 -0.22307194425293406 -0.08783112811581766 -0.2943090710373378 0.48561536144522144 -0.40764288281250055 0.15684211766555262 -0.23237247906164196 0.004645948139734479 0.3677959293756298 -0.13989763998374258 -0.2882451342506933 0.11077166953247009 0.24178953031483652 0.31749881086912024 -0.3889888880049165 0.39523223826179615 -0.015932026669794982 0.3422644997499184 -0.04228113149486123 0.556186928497111 -0.008613621113070326 0.2004892021511848 -1.4051085114817845 0.1702907909052575 0.043722424722914634 0.04912879046501568 -0.5811487649277731 0.7282803523374528 0.0970891267149718 0.5608566737476868 -0.6679286094816334 0.2078478946396798 0.09669876322181946 0.11588270407757056 -0.5424119504057056 0.8951721558265113 -0.09456356052576552 -0.2212791452796024 -1.0627735530732705 0.018547710680120396 -0.33251247805241735 -0.028507316657380734 -0.2883000999098403 -0.33351888152185777 0.13296530110360358 -0.9965302484782986 -0.046080385658648845 -0.4465303781201051 0.2725238569304399 0.10119918547103915 -0.2532713038079082 -0.1385787574243881 -0.4151966554194288 -0.45989174557988016 -0.2549259996586679 0.10946822500819994 -0.3609913002411345 -0.372699138687178 0.26034941829717995 
0.5140473278378701 -1.1155737061879214 -0.1824964849921904 0.755935289215188 1.268730173262241 0.25749746829622133 -0.5711589829106424 0.07978191064855127 -0.5005197174263274 0.22899959054872193 -1.2714970564271655 0.4912493034476197 0.7010336488181157 0.1746319974194422 -0.8955599999535371 -0.5273964953756354 -0.837715898423092 -0.9680548791068041 -0.14930569027754556 -1.1319169192524279 -1.0569183502893242 -1.7340955603558401 -2.083225661703058 -1.0322707663405597 -0.6919474688533748 -0.41343320471288086 -0.6452524770658661 0.3148387113052139 0.06513139662523919 -0.6978635380528369 -1.8579834549674374 -1.9218421154988428 0.23512546465473777 0.3055606872011057 0.4761545908391792 -0.5575543589213902 0.09249144648884537 0.6253298192991682 -1.0061843818943947 -1.6189839878782326 -0.013779061406973702 0.42934411529724564 -0.5980149299724656 -0.46063578069451955 0.3403065569355278 -0.06129349122828912 0.2504538667058908 -0.06624325130564089 0.4634044641266934 0.6798488012509095 -1.3263015783205825 0.316579734042805 0.925332143703938 0.445545327597125 1.094360692415066 -0.14187710264124684 0.21556290543817502 -0.454219536329178 -0.9018228770813845 0.43321230672542504 0.7003720086371306 0.4120221452624636 -0.03929014605482409 0.12169539087613875 
-0.47681117991197325 0.330595373413257 0.24523396447790527 -0.07726329180627588 -1.2071833620146262 -0.07263059970776571 0.10247007098214564 -0.16227249210583142 0.3443730596348843 -0.763180113776903 0.8961838795544672 -0.2847512264818964 -0.8978676473320507 0.018108817227837328 0.922311872415924 0.557262271178243 1.3451876060410277 0.6868142471207022 0.779954341117239 0.13829045713620497 0.8975862177785701 1.5930791995631308 1.998995296098732 0.9934027084395843 1.235118725771771 0.8063154275177313 0.7970703021898483 -1.4844778411844939 -0.09896577558800415 0.6296694898759921 1.4623441002936295 1.2075941543747766 0.6568197649832997 0.17488841462520238 -0.4741657291978723 0.42673880261286035 -0.07884709536056454 0.1862385478763691 0.8592436270456436 1.4932532263861775 0.12230477442891094 -0.39863314940832556 0.7069385123619506 -0.4953819795182502 0.04325141694190612 0.46524621700274693 -0.13628916864361462 -0.3573969084710644 -0.2413524078191915 -0.8199143787080969 0.07885864461384456 -0.1857443267283644 -1.5194935244835666 -0.18241586550279854 -1.1558593660824237 0.16184526874959726 -0.7126592286925711 -0.06787725768796617 0.23750202139980853 -0.5191976417466888 -0.1521119525024517 -0.669659444489077 0.026688153299662138 -0.09454633841581647 
0.40864885768140874 0.3385585100940798 0.5065142719474081 0.18197624413731503 -0.23861704697751143 -0.3460595315067206 0.4707574621491171 0.1305674392107942 0.5843603186900084 -1.0982839442374583 0.8608526154085322 -0.40562363223992864 -1.038747787166026 -0.19254778662694516 -0.03399575993802438 -0.3355277206251747 0.94427047909415 0.3650089856776457 0.7815840066874011 0.10074509054350268 0.7790311484393385 1.0018713040471279 0.609513568278897 0.1729608418278719 1.9008302046186396 1.6352330739134755 1.3311205722218638 -2.864354638476655 -0.9081858269276558 0.29497176172095535 0.9463858922297629 0.1825543054570396 1.166932741874428 0.8579255943129269 0.33774028705753095 -0.31847320563260983 -0.7122230946757157 -0.5098014788767338 -0.27086845044911384 0.6061930685127955 0.6459282587539905 -0.2755153232443499 -0.1890777141315254 -1.3213666788670861 -0.14839728798280982 -0.44526912286732645 -0.37990559303203836 0.309521392638873 -0.04481855421735044 -1.0253299511880978 -0.20959255642273286 -0.21941394760832336 -1.6817103044130037 -0.10993470043753936 0.4976633629215317 -0.606631044967061 0.11563301198333216 -0.36773987318769036 -0.7492917901555204 0.18998339983853066 0.40919110328679315 0.23057782195385973 -0.043875739604455066 -0.2986241800587338 
0.22371568159174735 -0.3226199521473505 0.1360978187825446 0.48370023996948275 0.16981486303715304 -0.24154195137877088 0.022915504244802463 -0.042889495391743256 0.5684131735628244 -1.0925522953570335 -0.08837344252322209 -0.8816918038303969 -0.3934875249699556 -0.42232859885746016 -0.4317604376224209 0.0952707907631963 -0.3359509084781967 -0.028441575131281736 1.0318824273220635 -0.5402231297189334 -0.018336749182087886 -0.18221555928986533 -0.6451089903972392 -0.0713131716783751 0.2752510011381923 0.9021923352123604 1.2288129050691272 -1.5775382763215517 -0.3702608122167847 -0.7367470262763051 -0.3674644740989857 -0.4484186658797505 1.3319343352654769 0.9598399139781824 0.5838058709582418 -1.1071327524276646 -0.5265867696237594 -0.4384851114947192 -0.7627753996409282 -0.8279453265978467 0.3388416750614396 -0.3680650117223641 -0.9165519064334839 -1.3227893056485451 -0.42791754427548645 -0.5313354383038444 -1.0588221676802951 -0.0740358140162069 -0.48992621129449876 -0.07606915815854151 -1.5097873974719649 -0.15129105044200258 -0.38985607113795656 0.13215474330399543 0.30260282003810307 0.26339817653890696 0.06394683776181806 -0.17913848489463585 -1.1114309287198003 -0.1616769508556774 0.3218548816475795 -0.3312260941349545 0.23532532268169437 0.22180090625195892 
0.33301171644772354 1.08725154875996 0.7268432115890932 -0.4046303509123124 -0.21850419865504264 -0.1337825793507059 0.5926399369109775 0.3459529333497184 -0.3829604486757901 1.0455709568833653 0.16075101896885785 0.7049125742704249 0.026405432399726245 -0.3466710966894351 0.9524221563619127 0.5123454372154715 -0.011780956429061091 -0.14086568997740728 -0.4869193949280272 0.4591770130328521 0.6856664753099091 1.0165830580271604 1.1169057555732333 0.14432799344108366 -1.2128583343176456 -0.06599833219335056 -0.4960212527386651 2.3199428358146528 0.12097124958370904 0.17680449257241718 1.6983174450475786 1.7421547714638692 -1.0830241106577605 -1.4932195514321438 -0.20201543782127598 1.4253075243255093 1.2091568334854006 0.21530886502010513 1.022553836600173 1.1491562832613371 -0.5039401494185803 0.0463354237848884 1.1564600110749639 0.6936456238524993 0.3180311871717532 0.8908130488527256 0.47920636659980353 0.07304466359912846 -0.337894585749653 0.37591966129782683 1.5726555744720423 0.6140983008727566 0.007747606959916686 -0.49065714924505566 -1.013211608259963 0.30656668717025676 -0.18547554126856197 0.9216729554940493 1.5079433006027094 -0.01810516425842497 -0.5092548937181486 -0.2754801856763626 0.21163391068546117 0.33429905565018836 
-0.31373075781316295 0.493263001310818 0.14954213994837806 -0.4445569116736915 0.23011235098508825 0.4530278108814081 0.15833497481917816 -0.32250128694613917 -0.2788914010844179 0.09004382951698733 0.6321333790468071 0.3060047935610848 -0.019083274361320967 -0.3349572793088444 -0.053408566693116236 0.3256668982222866 0.1284489987144644 -0.20540086033139587 -0.10525390826288818 0.3012043215393414 0.4126208246779977 0.42939488542355025 -0.031146169400423123 0.626574548045133 -0.24950309576893367 0.45551392024719034 0.4331961276752223 0.24414754991020093 0.054916652354812516 0.5635826037224885 0.04755454554808797 0.1483130595888341 0.05713884714253152 -0.47826169752047676 0.2643458725171622 0.6534704413954361 0.3620920070901844 0.4745281771353613 -0.2774009212126225 0.6393431772343815 0.36371170054681934 -0.5023706229616713 0.2370915440860976 -0.3661577744934902 0.1958537981760019 0.12174433663091631 0.22780541079978459 0.44707924969099044 -0.04308574897946716 0.48881684574550316 -0.21380802951013259 -0.19593307967267068 0.2403523869823255 0.37202780830672555 0.17811571176628974 -0.39705975686513567 0.35074626567684764 -0.2552959417951274 0.009146725442151333 0.20205556811510564 0.32204020768393266 -0.24495793218080297 -0.33604466320889353 -0.37615463837615576 
0.47677479485766466 -0.435044752714754 -0.27408983826155925 -0.26276290015468323 1.248020050439215 0.3771396579414725 -0.2652462495205135 -0.25931060737855494 0.3036156155550591 0.28448429875034986 -1.0073287804779125 0.6682285400056089 0.6400075641904213 -0.17078307050682795 -0.3870483058274303 -0.5101956255462391 -1.2943090543325066 -0.5902932831832104 -0.8235040146167594 -0.1374097477883347 -1.0808254867632285 -1.5340366039181792 -1.4401725555428795 -0.23374398358357282 -0.9980674840880606 -1.1116914942596599 -1.3212743491255787 1.7360135693706205 0.4575765057410392 -0.07165242483564868 -0.732119825470493 -1.14688267670561 -0.9586951085110382 -0.34325894992207584 -0.40110806309735897 -0.3176656817549938 -0.1432497229915478 -0.055443348921816266 -0.675613609280212 -0.7794910010068328 -0.4792029814220537 0.24345838553214494 0.1265127758213813 0.7551616635216268 0.17814538765589885 0.40600881485156937 0.21216803187393501 -0.18760330297039166 0.4705251599654384 1.000207479216888 -0.029785546053418578 -0.1512996289523971 1.4371049684664328 0.196300550945791 0.4978592277178067 -0.2961877580206249 0.523411133603052 -0.21323885000064213 0.5460081281010215 0.07546507147836957 0.08391694683338724 0.46444985247235565 0.4239062668001483 -0.13983335372005398 
-0.15786087332470594 -0.5256811639029807 -0.26603356212799084 -0.158055803600341 0.3352319190874742 0.19656218856468038 -0.2725414424534684 -0.08753602207348692 -0.40824395794038293 -0.3112745181045202 -0.3422792463362361 -0.09040653558440562 -0.04136114230395875 0.3729024288925417 -0.06766785013115857 -0.2309885291430593 -0.44366345723623246 0.14586673670602676 -0.020821864133548675 -0.26609194653189716 -0.07721094274723658 -0.83773059162508 0.07590575943815171 -0.5435548512083764 -0.3890284753324199 0.18429621759691953 -0.44020988111956366 0.14008827401859592 -0.6285985705229374 -0.15545508002080843 -0.6035409620206977 -0.25923200461075674 0.11690434717076446 0.21852102781113553 0.4986154816553505 -0.694268115293494 -0.036941113851293984 0.31764704096084917 0.01244955623335719 -0.43549581085583466 0.48312195584809897 0.09533339266300511 -0.46921020811089165 0.1789648806565057 0.3016946338279976 -0.39962934507067704 -0.4912995217302747 -0.22832892982745895 -0.18797190429262595 -0.18162967519769743 -0.05816573571701962 0.22979166407141247 -0.27829238805108114 -0.27151929212669806 0.3777536522942314 -0.2826045577109603 -0.22066948226782682 -0.2756580814067994 0.2166788748233776 -0.020592944906552814 -0.39173130042244575 -0.3580504501042403 -0.09508408902715512 -0.41115098841785075 
0.3382336920873787 -0.5392477757723696 0.04009655099380384 0.9651123170651636 -0.174773425460045 -0.26261058430135753 0.04222409171389875 -0.33893729612238976 -0.09455930428807038 -1.1752992747140536 -0.24294882457072348 -0.5185816399680858 -0.3332870879574506 0.17420900851697044 -0.9812087244033569 -0.4824897951602305 -0.6727335365285058 0.22660459325066246 0.5024230192373677 -0.9644290956313627 -0.14576221273209813 -1.3825807475611396 -1.290461896708941 -0.8549598531178938 0.3865280627363942 0.07772245529625016 0.4608888340747906 -1.7864830706175512 -0.6692893288078459 -0.2825684151542456 -2.1481619820316693 -1.945289295780863 1.8879121083830745 1.5543485633131708 -0.10085403747032336 -1.3671856833250402 -1.180479397244045 -0.5697986844519465 -1.914629975851158 -1.63267222516594 1.3232183978483403 -0.1238456136332806 -0.5603453269837347 -1.3970720876764537 0.2682342715004661 -1.0492015239400398 -0.8070149461407472 -0.06031844073195246 -0.27513975416707454 -0.29957329875427147 -1.7098715263354918 -0.35924053602822836 -0.26365422452233506 0.6964021661574388 1.1260719091306255 0.2531766580080876 0.06973086612409585 -0.6940578770458862 -1.5762150749236081 0.012345793679194668 0.3269164617802064 -0.012182218038617307 -0.361479403299727 -0.3692877926890446 
0.4399293186840722 -0.46170051253096295 -0.036422830283870215 -0.5357974142020412 0.4180676484555171 0.3467674495318829 0.31893912249408546 0.3742517036471933 0.20601252377854162 0.4200260709262331 -0.5600800886866153 0.32769315041285735 0.36294417621190733 0.33943134166062666 0.12232333919081033 -0.4363566879481701 -0.45263424707413485 -0.9897576414652707 -0.9261942684778361 -0.21381565512657696 -0.5752439537892329 -0.4659700053543487 -1.2091712589068528 -0.6111534768661994 -1.1554839453183747 -1.130276147477982 -0.7882355555644744 1.73674355302075 -0.06883232650126962 -0.229829771352416 -0.7342206684428215 -0.876436067720828 -1.0579269506882083 -1.2044863477752843 -0.13341337537011153 0.2063659445812354 0.5198015395099475 0.24744369920325604 -0.183493800402517 0.22541091190658225 -0.866556192348624 0.35071312162247176 0.016146964078321776 1.1027939249093204 -0.054185997772189 -0.226340594324767 0.5970105874248428 -0.494960126526697 -0.21404996605441828 0.15336692045572956 0.5240126080773533 0.11180982707160958 1.5321479987742 0.0803779143396516 0.21847894198383055 0.026915575959877137 -0.10044123239707782 0.7206503603506059 0.5239413512519355 0.4164651264825521 -0.05115501447435209 0.5086438819927116 0.6887111158054245 -0.38945319605130335 
0.11444439145097386 -0.05501928420374045 -0.14122490140760557 0.005222546462054027 0.3102595816124487 -0.24760661297338676 0.028640370176952604 0.4693757219248972 -0.5322543383157287 0.7727979802825716 -0.4991357703719394 0.6793755412794376 0.5398629501764263 -0.17225427227782109 0.1978453510042243 -0.4727128327108327 -0.3066374133445374 -0.19233068981448478 -0.4683353389040525 0.3519301334197417 -0.5589731769256792 -0.7045422940597724 -0.1837508462217209 -0.2302050174586797 -0.4756255683799334 -0.7891715314512663 -0.825293193061243 1.207072170757243 0.7790713120496037 -0.2845384587221785 -0.2310421559291058 -0.47619940074270306 -1.0840196455408762 -0.9005667238477899 0.21283335880625864 0.26430721969872284 0.7392331220241515 0.7026914986665599 -0.3176432764017835 -0.10292067111275774 -0.08488207046199751 0.1826066657886783 0.39001106546152786 0.5624686596548296 -0.440300406305983 0.474419509976069 0.2702566935133455 0.15458770063691862 -0.3534572159983023 -0.07268201000656832 -0.18333896920008488 -0.26911555948514093 0.54200280870548 0.17792825528560144 -0.5398230861824249 0.5588319932761183 0.03355841182896678 0.022991768489240026 0.36355520709149164 -0.06840379041213683 -0.4931693238396202 0.27982307622131014 -0.11389301889474411 -0.46988032135450525 
-0.35492152244528075 1.0145989860757805 0.3525717309310742 -0.9776474089534267 0.289522881769932 -0.23221960332347177 0.37928142124756575 0.3229195312183519 0.019811894621270355 0.6940996924177654 0.4876831371937485 0.3562615336705765 0.2488553371928876 -0.14594959299821975 1.2062400929594495 0.08426696845299261 0.500256928200286 -0.45636255749457305 -1.095312820622951 0.5379038362056237 0.21496568979198713 1.3573426056959592 0.9759093099330195 0.14019450438505282 -1.018354605345957 -0.7048908687748264 -1.133761910986817 2.1097236744007835 0.6447631898943658 0.6374574269714115 1.7474228380496435 1.3958104265447255 -1.213861326032535 -0.6890934244679726 -0.20541896101174656 1.4618424292475676 0.4786780841484068 0.026409207388489703 0.9694544803487333 1.0276250037229322 -1.2546130985239483 -0.21197654639557942 0.5249499541164266 1.510912177495895 -0.04989047508966261 0.4991145779527599 0.7774720115933794 0.26965282039697264 0.5594989197572082 0.4366062005872043 1.4307864592070796 0.47494397347442563 0.17376824965469262 -0.6987402559162943 -1.297519407458155 0.24801360017920207 -0.4765378845349691 0.26598723624741966 0.9061590738341747 0.5980802774685502 -0.5200263247239031 -0.11155914736246011 0.22476637671063213 0.2390452565533005 
-0.01665789775160736 0.19665420782179044 -0.5153846002644008 -0.008190058182125287 0.8082262368897886 -0.6877434325775146 0.20620906133838063 0.24514647145663876 -0.6219354251419602 -0.2915654855641413 0.48305307106069945 -0.1505131415593817 0.7974874940421719 0.02184546931575413 -0.32801781287519677 -0.35530323751422127 
0.7679855355482664 -1.3363618602754155 -0.310241142255469 -0.3450414654068776 0.21312797478086043 -1.6648512827175583 -1.2980458741396006 -0.33192078406681663 0.7111730086703905 0.02241467028800831 1.097478426119693 0.2933208270417107 -0.45749917413565266 1.1762418889772517 0.5705355761743711 0.7175046023730224 
-2.1493601743258077 2.6145101716492056 1.0949008622156042 -0.560217507893146 -4.31121439025361 3.428767063023811 1.5358325106147979 -1.0718239841651278 2.2767805303373203 0.1946661044670786 -2.918240934434718 -0.7604064408136224 -2.9384684487855965 -1.9812408727781754 -0.679134817038734 2.048532033927684 
1.871857064044157 -3.775941363961522 -1.0081807379448353 -1.6283644175229661 1.803757884122308 -2.6440021546052197 -3.4952142361153573 -1.7144143847272229 1.3054176624272704 -0.27549477903488795 2.9317838228059383 0.45134585549511813 -1.3233777206837911 2.474258389302819 1.7897604275050296 1.5854499128094963 
0.5355338424802375 -0.23506392847729524 -0.09680369870645297 0.4747630828352233 1.4735291059663655 -0.9846311610491058 0.4173055476933938 0.8647304507138296 -1.7648973007808553 -0.7146090020971951 0.7677860656682516 0.18875170793127205 1.41997126475853 -0.3774159458926328 -0.0284962862368819 -1.2766417565706223 
-0.42681646234007486 0.9217068432685539 -1.044746522746755 0.8947439823692004 2.152571479858927 -0.9197883433947808 1.3549083312838583 2.773616357777715 -3.5794647682871226 -0.42620991652787305 -0.31479910633846914 0.352820079771653 3.920963548561694 -1.1773366271169878 -1.1194952256000932 -3.320021526326019 
0.23773567110004737 -0.6988974554336594 1.0271954157071224 -0.9022899126795855 -1.8663157821545644 1.082365837681536 -0.6154384329364349 -1.9389593010695831 3.166839710808863 0.5831136974304748 -0.19452386951779288 -0.986347066585304 -3.89357500825636 0.620702936017445 0.08574001189921754 3.5209067890774337 
0.08444457702996178 -1.0050312286373755 -0.09913070507609927 -0.607216881401879 0.03344096736052918 -0.33284314075582916 -0.8066589207985894 -0.6074625329031204 0.6239602739710375 -0.2782847539352542 0.31881022712452406 0.2846053645445575 -0.3829007864397384 0.6900470284501456 0.09074645872275128 0.7785288058388249 
-1.9285176941669318 2.9276934439621085 0.5122803890001686 1.2704262647942768 -1.2509776721320442 2.321314840771481 3.3149966261002453 1.6934803362317552 -1.189061116096745 0.13464763008505828 -2.2380759664004066 0.2793028604531531 0.992849744319732 -1.9821545570416048 -1.6731935625981424 -1.292208883264213 
-0.40116610556570703 -0.2248271858959887 -0.23548985348044554 0.002903998130211804 -0.06082286662595967 0.09345083325189658 0.1996814368010289 0.07106417755256998 
-1.028989178331544 -5.3493598001235405 -2.955092743797356 1.962097585636232 5.256987037902869 -5.122199905817219 -1.2130287059074214 3.018853855688244 
-2.093226543608667 5.526903754517938 -5.615791124776699 -3.0998101539612226 -4.531428802871328 3.462734736239453 -1.0337294189335826 2.763640649549965 
2.3580767875210307 -3.2425738706236307 5.868324821687642 -0.7588799143953784 -3.358658584804342 1.49710134733093 1.0566654078290048 -5.367566809931075 
0.12885783066434076 -2.2423875802759414 -0.541518005889961 
