0.4530257086865644 -0.49098222061130464 0.031183703777447485 0.1782219841981036 0.051733512181234176 0.13383693955494622 0.35010768407447695 -0.3843644519270921 0.15177914194540276 0.21461003508245327 0.3211633259479906 -0.09265670700285707 0.03554388299211473 -0.45007127926012286 0.028215246111670884 -0.09611753212460838 -0.08253474947699835 0.05970008326064298 0.2073590817847633 -0.29729646240679514 0.06210579336581435 -0.07417208001621967 0.28302200150232665 -0.2479662994988631 -0.2860737100115472 -0.18008322066116156 -0.10710774253521646 0.5188651175354946 0.250743899468112 -0.3207231639047078 0.03957007616218932 -0.3428727617986764 -0.15654000726108713 -0.012684736664848453 0.017339239793020246 0.4135142044507388 -0.10133394039851894 0.54026168664971 -0.23546381624838666 -0.0671992362465705 -0.5041647001324114 -0.22904582904245485 0.38292467600419783 0.1985570381162153 0.42981216131071576 -0.05435511210224757 -0.17913132497880851 -0.3014555912171495 -0.0619584039182029 0.38949819430654475 0.20064313059582234 0.07471429261129613 0.0736515448757954 0.09060835344332778 -0.30527958138593847 0.4484645885814515 -0.06535866457852536 -0.3117280376525149 -0.4090668373417465 0.5007218081093318 0.10105178171363093 -0.014608013062021087 0.19089051643924482 -0.4226982815555803 
0.3087456937197268 0.1869167946702276 0.219776359924514 -0.29538415142331015 -0.12342383333654132 0.008064048633371337 0.30781983412339053 -0.1426323934623929 -0.1964146585518455 0.05676988838261943 0.4602693077525195 -0.5239515883423642 0.06151643058888918 0.5009932879109064 -0.009761383864037233 -0.5052861554505881 -0.3634385782765589 -0.28543375071114835 0.007022417578443429 -0.508524152971638 -0.25045826120648934 0.17564742381539236 0.3666251859193779 0.39412300410612544 0.3807985438239743 0.21951054819214066 -0.0963825635619887 -0.06420153560196368 -0.3404210280191703 -0.4284402288653035 0.5577606718250091 -0.18122780382537385 0.24253271818482317 0.4300681472372236 0.04461808401104118 -0.2625071496783583 -0.6050377058177083 0.3235637374645342 -0.37193916523177406 0.3636916385073509 -0.25542637097515447 -0.2420197414115395 -0.07817102650404427 -0.4417079238208532 -0.19413439736860502 -0.4806027620923751 0.08826101808556118 0.49306717278364187 0.2265145345198512 -0.2442974578342294 0.05258971211639552 -0.28991600190017414 0.02357224853600779 0.4200951573759934 0.3213108502548949 0.3662534181497058 -0.08162790817977 0.00994155907090663 -0.27363022832787864 -0.38168342451117 -0.4691039505808154 0.06590003693494852 -0.05725911449604664 -0.10250991030281753 
0.32190532601057253 0.28412309840184913 0.21585490077168443 -0.05529841049338773 -0.12187183353679722 -0.06986423667081901 0.225478068521279 0.24889951564132232 0.26304142104751616 0.5121816850121745 0.44590630957891 -0.0571092170875072 -0.1991678184008599 0.3484362380472181 -0.14529961887373402 -0.3444385968771945 -0.019976165172945266 0.08531265024907367 0.03922288821126158 0.42052515558501496 0.11461238453276577 0.39568905631664675 -0.23209984139862247 0.09139079904530628 -0.27082990490098097 0.2731194913237861 0.45844336982359213 0.422639555419506 0.025011416537098128 0.19561891112066584 -0.21169990845056333 0.47235310813406 0.14554293778032024 -0.1537775452591563 0.3058533177656406 -0.1153449391898725 -0.38895887521348094 0.17055522894933473 -0.21521697379357016 0.1440849464752703 0.15130057579279851 0.004770186579057687 0.26730277808026764 -0.2427177434076069 0.3559929543119438 0.033415434967942 -0.2001590523856215 -0.00942813556489849 0.06732697667966714 -0.28800971979631285 0.27807035394179513 -0.38193398811191975 -0.2720469695745323 -0.23227793310457756 0.43583551059808845 -0.11517089937726746 -0.4020078336913499 -0.46262302441755077 0.22485403400829837 -0.03928851521591832 -0.08965262716817023 0.039206418302385526 0.3406943928289758 0.3269538452098467 
0.36476370375729383 -0.33018369058057645 0.4339512233699739 0.20335568387133104 -0.42266147515075053 -0.265462663061118 -0.07383879927727033 -0.28717553704683196 0.3919668268912627 0.1850708820185098 0.047816573363493285 0.15243324419525622 0.3801891314534827 0.3427378294568447 -0.05572615802165887 -0.22869159972284478 -0.10112796662870853 0.02256394723209322 -0.10765376642404938 -0.2822868190496873 0.3748458832500936 0.09750049186196792 0.40767135225629003 -0.01421148774899025 -0.05987032435940893 -0.3115418320354906 -0.4200791728360628 -0.23796827037786247 0.3830189334539542 0.1773055735012089 0.30468868061807036 -0.4376164470705812 -0.005590912902799511 -0.24003551208386723 0.4876042603175377 -0.32981797183097444 0.4486897189480744 0.13196779421044855 0.4647091161871493 -0.24763742379076112 0.48006808166925613 0.17762011854107618 0.11586900919799453 -0.38028454678698553 -0.017519953663413548 -0.10332392867020768 0.3501762568210255 -0.2860447833925091 -0.2917352405953197 0.42068127653571835 -0.47505955056536064 0.2011444945312709 0.0058571468202288784 0.1640373551017685 -0.16732329324540648 -0.16398846245896548 -0.041513252957526954 -0.1634613082611318 -0.015340345712774622 -0.13030789448960695 -0.10804832625786717 -0.3805847767159969 -0.1978468912890488 0.25904179948303385 
0.4575211299940569 -0.3746050708468116 0.30761553311970713 0.05362451126183594 0.4657924822762666 0.1874161465475009 -0.25397841558184825 0.118762995924921 -0.4799650100011294 0.4150542590720954 -0.2499049716086613 0.182529774340245 0.03904599838051797 0.14088055840866134 0.05779870211867689 -0.10841325609856446 0.31239009416894287 -0.39365698065027876 0.4524098279927505 -0.3719656427682435 -0.2806660353988263 -0.09336886144418688 -0.42409861813142685 -0.25730674804432285 -0.151649748845062 0.3304325337840769 0.10358919769713928 0.09905728692962126 0.08205130155333601 -0.34809651162598193 -0.20239512209602023 -0.41442276584067456 -0.05068965521071762 0.11329694539284586 0.42950268779979717 0.3595351506537906 0.44828786863538517 0.5417243689509066 -0.05331022957244932 -0.3932186040533177 -0.3395185849328355 -0.1550630211506364 0.09462654801455524 -0.3023657714578566 0.48218113700524073 0.44900638877901194 0.31507163296264495 -0.12226307058339445 0.30827748515701975 0.0010227377026920043 -0.4952070987797592 0.33996584689167225 0.1365814876624216 0.04660892840924218 -0.4521894352427026 -0.11239467283414306 -0.16409466784173687 -0.3452781532631112 -0.3211291698556579 0.35073402875496734 0.48744335404248706 -0.10522932824989222 -0.18157890536413407 0.1208551938616953 
-0.44551716821864445 -0.18601844602807208 -0.24709599133440838 0.31184479858039454 -0.42593896828870487 -0.03286893270310007 -0.17121875375494913 -0.19212389403655422 0.27616297340665463 -0.3421791277471249 -0.3410521200702386 0.3442418117917493 0.14871269893350283 0.012170242700831068 0.09752108129435377 0.21100424167636744 0.19748174651903264 -0.007393555931150682 -0.0069667289726115175 -0.47188038107234626 0.22137361830500984 0.23114783358905033 0.581492274061768 0.2701931048418882 0.3188326050027225 0.2200529922619989 -0.4034249453287127 -0.5016743180266755 -0.15300190180652481 0.26831077396822867 0.24838486612939037 -0.12007919300586642 0.3572735360667657 0.2912147210417016 -0.39074153674363377 -0.2407643214429946 -0.2902045296886708 0.24568968529639776 0.34070203916188874 0.5368917835757983 0.1300434102965785 0.44246887500161064 0.5149821598509807 -0.10374486012518089 -0.07963428348395261 0.2095894237791056 0.08606374431964947 -0.3839896207844147 -0.04980533171106198 -0.052033474922801234 -0.2793196568094411 0.09950533232473013 -0.5030995620253872 0.13537479080146142 -0.06942041504701142 0.15585738338090765 -0.2959996900228662 0.017182385616662615 0.0074021592856323044 -0.4071632366949072 -0.14137963121579356 -0.2172514949514991 0.22768570566258647 -0.09550227505954856 
0.38889997803685056 0.4488149227429203 0.22366906276530285 -0.11329787307857489 0.2591848746048722 -0.39843696113581334 0.42698740703882626 0.13218978496148295 0.4039524591448809 0.09751372798633855 0.032695259345667006 0.39597275525673836 -0.09958144384624756 -0.31180607620705614 -0.3406420628271269 -0.36336523513685487 0.004342294951124298 -0.39573683892598466 -0.445422964049883 -0.03185169364219316 0.37370174653625715 0.3921835638332344 -0.20874843254954054 -0.11276707927872287 0.40908098143614063 0.5730142011058061 -0.1443554356063948 -0.4239197636797899 -0.5707812265784646 0.29908130522465537 0.5774301187062182 -0.27647710642016743 -0.23667094033700542 0.06139377805773393 0.17268923267879965 0.13911814367387432 -0.4206258942254591 -0.4827925680800446 -0.1549586337596527 0.5429490861055418 -0.1437273692877867 0.4563660967443343 0.09402384451740296 -0.1003330671318982 -0.21198327941307288 -0.33068100549281443 0.1936446312222121 0.2339424583222645 0.0853069104941685 -0.1849813103212088 0.334877356080298 0.1429383172111168 -0.493896625035637 -0.1387008559888814 0.5096941085516543 -0.48102601655061983 0.4453078733668134 0.05873465577545209 -0.12052043388986122 0.464588485703052 0.07129686368529416 0.3476943162024737 0.3390808865851084 -0.30167447173455353 
0.17206394733532016 0.204117016749101 0.19362008827110783 -0.06681184682461239 0.19136735975219066 -0.2992729905947003 0.17019355932358673 -0.019401308206695264 0.4673736012596258 0.02308314482115557 0.18585425667974914 -0.34246189189371157 0.10956931709008808 -0.43302282898280264 -0.036595231828606856 0.3150838063483997 -0.3019172742442201 -0.22267312986421522 0.2594470262809222 -0.15915308588860258 0.06940950061371659 0.38517742143298384 -0.15497785778412052 0.1914159572549191 -0.4357383128886147 0.507448340240577 0.17244692018463678 0.3302618820374461 -0.21541384889649204 -0.42036116151958985 0.3929796890180338 0.16735002567255852 0.24489624879025337 0.37764475400021036 0.39638019721094725 -0.4336963874511949 -0.12130514999287076 -0.4729434127439771 -0.027005091793160175 -0.05576465827681855 -0.2787570251842824 -0.026233513806873627 -0.3551070288507789 -0.22424474442448125 -0.41120274376756055 -0.10976321784817661 -0.42716057637013166 -0.097937206671481 -0.40077273218232173 0.4746907975289713 -0.22677289864642777 0.32848545354431447 0.334537600978073 0.05245897358668603 -0.42302349289778846 0.37554619217202273 0.1417742489659278 0.2663654444720353 -0.12306164124165811 0.20369579560867915 0.012435396536863989 -0.4812883111538929 0.4369805780058944 0.2181971918385257 
0.4010603571067078 0.23682335677550076 0.39925044124252584 0.28844220116912134 -0.16826334370584659 -0.1855866375986944 0.31845155522138807 0.3077410957520175 -0.32233622485250063 -0.164584549697764 -0.2862969540251087 0.27518583355509924 0.010300255445288044 -0.33920388574303706 0.07890140667810278 0.12864661044104217 -0.40607854889941236 -0.17213252858099498 0.4449548393712691 -0.18247699439643425 0.4216528805420833 -0.02705238650975313 -0.05672506411165087 -0.427936561212607 -0.4966347323130566 0.21001349667784341 0.426657806060782 0.354985599857005 -0.32471078919391894 -0.4191106750081772 0.2349684239678359 0.5150942115285274 0.2827842316491198 -0.45291741583517414 0.018794412764323715 0.2768168438676299 0.4080372964593615 0.13603924653034863 -0.19387050471219383 -0.17311124633290856 0.3485807475554085 -0.12589996881172366 0.4474545252796799 -0.4761742894161707 0.4678186728317007 0.28655671845421743 -0.3135652443867252 0.12452236136048815 -0.4094973466038365 0.18090419010493672 -0.04283289192905492 0.2649196642723021 -0.4004985791126765 -0.08023801195800107 0.3476815215037958 0.12819602516932094 -0.14465626586551145 0.4645358326197707 0.3848467800669032 -0.3035587032325348 -0.07213826102773863 -0.027720449762410764 -0.049683742453244015 0.33872372491792946 
-0.30677752919694184 0.3297276491405362 0.057617542120521115 -0.2964053921974532 0.3180055864422658 0.4704727290979817 0.10633556717076202 -0.32928102853525537 -0.2827215128009986 -0.07450919100972964 0.49750114348168556 0.292253340392596 0.0980240975247447 -0.3553720740545531 -0.22670648367208202 0.2545883712607792 -0.05566555424128302 -0.22016462302925047 0.030799196452999267 0.18739060380439398 0.3480316353138089 0.15660992017764866 -0.25823013965272773 0.5049175121363461 -0.2888044900566985 0.5390206485410769 0.4726038474217704 0.0755930723943846 -0.022136359315071266 0.4665727132098971 -0.2090657595327021 -0.08261012709843249 0.16636696504090717 -0.2558110103019928 0.35738462759105927 0.4376800721875223 0.28278122498879565 0.45036271952894197 -0.44134033008151824 0.4382899976158429 0.4503869284777754 -0.44089061791721385 0.18848299968284946 -0.45159118318694735 0.2228624527375767 0.06951169879149925 0.15717471082563836 0.4665063142616001 -0.03868090963584549 0.5140542734304723 -0.4666156383776407 -0.18901748103486432 0.2557550637834059 0.4360441766296118 0.42441774939766574 -0.4214385829309472 0.4027021544744445 -0.2791764176224392 -0.1110329985038076 0.2028481777450394 0.41964246414648326 -0.1396379172396797 -0.35270061158346844 -0.3754813837740465 
0.46774084491832074 -0.1838746257224333 0.1395695420302324 -0.4205862688216262 0.5153842014234009 0.3749484108993114 -0.049289293505888045 -0.24068872823019427 0.3914484618359166 -0.3053072512659629 -0.006130955595951639 0.0182610142838471 -0.3456524986934012 -0.16723856540523205 0.2081565410172291 -0.27947019008033824 -0.26036975012048397 0.231093071472526 -0.08512394167359716 0.3329861271967841 -0.4965450270545872 -0.49611307904099455 -0.3535577215220341 0.2979565996993118 0.13493807398697236 -0.1161686433704352 -0.3433761214932487 0.22636718167806028 0.3790219749203501 0.0718058244291842 0.08707503413311214 -0.24733909463400056 -0.23633283487865783 -0.02116797112586425 -0.36644047478942193 -0.22867629635833542 -0.2450085133548459 -0.12910148551976772 -0.4626822138358857 -0.24793323220838578 -0.19520939527076298 -0.3693304951495978 0.3236638203665248 0.19761801603695012 0.15496133280448954 0.44866341130574755 -0.1553300954233069 -0.1988453681355976 0.3149971347548953 0.23407332313831997 -0.04359914311785402 -0.4879794084352526 0.38974200211170035 0.01815841331720325 -0.20104652499000583 -0.3613008315068075 0.1426664636031503 -0.45325375794023737 0.3794185415788816 -0.16504629344656868 0.12943430028953407 0.11591980083617606 0.14399387597793326 -0.13855227175616236 
-0.1743845785172254 -0.35331719360755515 -0.19556832900439192 -0.34813658567934275 0.24972370326614138 0.19429277000701017 -0.20144848475404242 -0.07847970121339091 -0.4235906764923368 -0.10410457519825499 0.02688314228936297 0.14741442558601325 -0.040686258628129426 0.35014047922906577 0.14008602466986375 -0.1385363772378081 -0.24882052026098092 0.25326764663178397 -0.04977353365989554 -0.10091192314832016 0.050060962525080084 -0.5038491899715358 0.3845898616112462 -0.40026409221087883 -0.41696672384293043 0.22645517824566208 -0.46737326184111117 0.4683957277804545 -0.4680570550618739 -0.02946532635171685 -0.2546204947628198 0.04561829509533533 -0.07001552268648671 0.08344916884170163 0.41359526078455017 -0.4141377392994163 0.11459782074735005 0.32380584623150926 0.2664772101483491 -0.12714769960338362 0.353756719265333 0.09933145881085692 -0.27324035585473 0.36813957293415894 0.39764007495867065 -0.2567430452188798 -0.31222781952718953 -0.21250842434705047 -0.17027002547622855 -0.18413646327947725 0.32464436619394027 0.3662000266096905 -0.16586925620185092 -0.29637064952616415 0.12755523017994863 -0.2443313101466511 -0.24363515527714846 -0.17971382236502223 0.43975915124138854 0.03442970499231055 -0.48486158801676305 -0.45583453551374375 -0.06102527560516882 -0.4121205700747682 
0.2589398663201788 0.448064531016564 0.45602116092848877 0.13428370964272077 -0.2925064987119511 -0.16738653368499543 0.3611520221560829 -0.2956687594913152 -0.15234408719216927 0.2065792409117929 0.308029165169729 0.047369307064111126 -0.36565893535128824 0.001654641197758813 -9.352058080053951E-4 -0.05631293670384508 -0.10107401775078742 0.2445245215572815 -0.384755670048105 -0.08607186679481901 0.34334162133619783 -0.13327572883881242 0.06590723656462924 -0.20686545216871416 -0.3642243157880013 -0.24953413089277676 -0.16829198621131172 0.35592154542383486 -0.14427054896857294 0.49110226596390716 -0.39645701345268813 -0.4958610916264302 0.349577986300173 0.3457318025376946 -0.3791284099507383 -0.006581567755961699 -0.2209146855313847 -0.4972889716420315 -0.5154682638782566 -0.049625883732991066 0.3603619943267436 -0.09993510063256071 0.36300573524070157 -0.0796317467692529 0.3288775629233575 -0.3184469936762343 0.050176597737522484 -0.07951531921341133 -0.1859349627714824 -0.13761338236710832 -0.019739216512371354 0.09740807770776841 0.2119303755875119 0.2635469621294132 -0.5346683660838573 0.46369959334364896 0.025438254526813035 -0.14731281090104942 -0.2744663881412528 0.22065509000672304 -0.2874872270654167 -0.4574042708330846 -0.11132561856453464 -0.3740654941077546 
0.4573087680251461 -0.48787539837029736 0.15853632614772759 -0.47159760792949673 -0.14441969562469723 0.32576900004696974 0.4074272702681995 0.3782144794915586 0.3350692134635017 -0.4623724338918377 0.1571849662407983 -0.28483509310681054 -0.39556903976541397 0.36438327048384445 0.3984482933835566 -0.3609909712219667 0.31155466624273515 -0.353023815729908 0.03892574246320018 -0.07361743220374542 -0.1881202665435806 0.12152599066884161 -0.5247930233730792 -0.3294379781917147 -0.030776374784113523 -0.263773277694608 0.3254514968620833 -0.1098697562743427 -0.3832501939731792 -0.24606990182200314 -0.3829410345044683 -0.4304406897441237 -0.08950085350531992 -0.5746181445453041 -0.004149820016376842 0.014478573457462836 0.21334418579795625 0.08574840198809197 -0.24150240094740985 0.3468537087721809 -0.37772035304888507 -0.1750477181671785 -0.033145201569852005 0.28550369917010054 -0.04414164417385228 -0.3706679024316452 0.10536319058893259 -0.46203576933159174 -0.3525425367358572 -0.5220798577744544 0.15298854198056192 -0.20640601861603125 0.5158914523779301 0.049456296189394754 0.04072566862872281 -0.06207148109874476 -0.3836175433386418 0.42911546962037544 0.13214917015674335 0.20516915362847174 0.20622769413709577 0.377873206333006 0.4041872947544188 -0.38726383006037524 
0.12816619702922227 -0.14938334938167852 -0.025592596028885743 0.19110287402731385 0.04807318079309718 -0.2061820373983893 0.07369416481364369 0.46737182006021905 -0.4393435378186946 0.17824578689683804 0.012872547985111974 0.2872898357585655 0.11773019355578145 -0.08495596813479933 0.3208720814316969 -0.46568923256894923 0.16264860160735528 0.31295352687381073 0.2236280890514374 0.438842280021659 -0.2857359076769596 -0.33490589061847476 0.29349469924964816 -0.08141883000643926 0.3255284531222189 -0.06477779723690712 -0.048225874460976266 -0.14703261248077257 0.5787084524710239 -0.29343582581602146 0.018069129498418133 -0.21760698774897494 -0.3110203402076477 -0.3317338391334479 0.425444310457869 -0.045538444591515154 0.48892892928059106 0.5907251198769546 -0.37378270851682527 -0.02190991633593994 0.3437842906212884 -0.06999790484492943 0.4437318685105304 0.019765048966337823 -0.43887118500333366 0.36260154084779245 -0.0712407307457852 0.23052930253865123 -0.4034390068345474 -0.5074970134914366 -0.5264068043580356 -0.4241060438316481 -0.10806078644246106 0.19347181274232664 -0.5327004754828965 0.4775398702457383 -0.13887699971735964 -0.20614620449406457 0.02127164351784419 -0.24241492544520749 -0.32239216439896246 0.22196391580614064 -0.3531248163662911 -0.46833989165874734 
-0.2971377436308768 0.21517959558617838 0.09837389881026405 -0.3120209252423155 0.294864763363036 -0.31905699783764724 0.09774860656462332 0.28616500222511887 0.09287810757558587 -0.4786987735415123 0.15310738112555927 -0.0732919510388419 0.07772507283028669 -0.09754556620313395 0.4447181447365283 -0.2720691583557733 0.22878823018655597 -0.32501447547723267 -0.44077482139258584 -0.19947973079117415 -0.09102093070369353 0.44817528557535236 -0.012176239165256848 -0.3494071530069828 -0.2731421523219434 -0.3705669291910616 -0.43617927171644294 0.16222008743580085 0.35991022542028156 0.14585785818496075 0.4994493253551741 0.32865031289115815 0.11706529942191907 0.248943222177777 0.05904501049460983 0.4000288697100317 -0.13322529733431768 0.11522822591245341 -0.05374343285939467 -0.1541976491564095 -0.4345825060152643 -0.48061109005178293 -0.23546252155194897 0.26023423135367385 -0.09738784527745768 -0.06791728074466087 0.05822157254464105 0.3406547226216773 0.4653626704505658 0.026183907033813635 -0.27809143737292913 -0.12238803153725175 -0.4623498373825336 -0.5161576499778738 -0.08176646614706853 0.10989906623542384 -0.4620544134200814 -0.24578487793096707 -0.33821237724803405 0.1653497219911488 -0.2349772122024386 0.07665554264911585 0.00124024428650144 0.24358441884851945 
-0.010453659937869283 0.025684226721744016 -0.021781381887150557 -0.027401593979914245 -0.02777423202849956 0.015368172450571295 -0.05221531442948759 -0.028673914308816627 -0.021811687381657972 0.008299546761271839 0.007755774628859778 -0.01504456914824565 0.015931497590107774 -0.0021334638868428083 0.011041429308053224 -0.00963823866053269 
0.12780819797098 -1.3974044046130183E-4 0.10478917672484148 0.19663177437753185 -0.2745488480269643 -0.532372649615255 -0.03823424107487176 0.34137086815584605 0.4083172557593548 0.19935684355274652 0.22947007875842831 0.2142054143457535 0.027220777570553707 0.43742748961082767 0.1837931998132877 0.30552597634277584 
-0.4309411234218413 0.5408472853049889 0.005157203522902038 -0.3999697375035405 -0.7540622614589889 0.3994503054659661 0.13350578360083004 -0.08866661588020311 0.38741557418156386 -0.011767653750296567 -0.29266375795375243 0.11811272770750983 -0.0646600295445129 -0.4048375453506186 0.061693052211207446 0.2092511708458614 
0.1773496934770764 -0.8157779812685404 -0.3771686543653697 -0.5076059184532212 0.6354051822184802 -0.3142187054573289 -0.5406637881101926 -6.68832905099166E-4 0.1635085028379019 -0.10723255006993246 0.6721030219585732 0.2855948399742419 -0.147973269817758 0.4855161834770526 0.4625576102779394 0.1827596538873984 
0.3350868646088439 -0.16740246034891074 0.3878935973501476 0.11098659325712149 0.33220768324037603 -0.27114500616426573 0.20058574348796548 0.01964767032881911 -0.4228906569129012 -0.47246564683752523 0.2965398979358841 -0.2514598822345021 -0.14654979980515298 -0.3421545540398322 0.14005989747580522 -0.0030712719657871768 
-0.16095220436106078 0.03488386658495331 -0.30911728062939203 -0.16401586388077968 0.3402872729887241 -0.32477083425362224 0.1107927511411743 0.554077621346515 -0.44582759902081087 0.17136383588719822 -0.283370588281731 -0.2377265148629852 0.4412342342730949 -0.4089236893558888 -0.5419719013178217 -0.11142620135163515 
0.10603815680223809 -0.27041356880357553 0.2299632205770504 -0.04967625432939863 -0.038247236494649915 0.17582328994271645 0.2334106516608424 2.559610408037288E-4 0.21114257981900253 -0.04438771888142373 -0.04858840293704726 -0.49881365662446786 -0.641048952296984 0.03336626027317916 -0.4109890678161826 0.5345930251116743 
-0.3825108689542755 -0.5007885206116126 -0.11640943114512567 -0.46567024328864404 -0.22595850515699065 -0.015285627515408058 -0.41005737602492415 -0.3811101282191249 0.18023667889380646 -0.38184892835612344 -0.22344689918179744 0.08101833286373855 -0.14473898391665888 0.21030101230799425 -0.16834394275875508 0.27663371045760415 
-0.45908228379335386 0.2980443225789047 0.014883834272520057 0.21374746333802788 -0.316313432442154 0.29856894169579146 0.7007543525824139 0.2208650493520724 -0.0303886920455656 0.04686443735009737 -0.38608961523807006 0.36046437901476946 -0.14691402517770016 -0.216831660446625 -0.5497051748469439 -0.018407643752407683 
-0.14940689037956997 0.0175741073807296 -0.028411602025578207 -0.03873799065043422 -0.034370469136932646 -0.06361049341682155 -0.013429517663549627 -0.14755243459683554 
-0.12521254083554584 -0.4384146886304236 -0.10535026152867936 -0.27474854825540584 0.2798668101959282 -0.5904542675843614 -0.09094891833894925 0.022556430040057588 
-0.10866590690217479 0.5705149398027982 -0.9408632449893565 -0.3205193906485747 -0.1630508142550714 0.28969909324824905 -0.34387030687667897 0.6415023467494504 
0.4316906779720938 -0.7704763605083877 0.9189185078081062 -0.31645130234580193 -0.34348424808297134 -0.05792754103548523 1.833620392592888E-4 -0.7889647649055274 
-0.34242278245107793 -0.3896102306300101 -0.2610791261311268 
